<?xml version="1.0"?>
<opencv_storage>
<cascade>
  <stageType>BOOST</stageType>
  <featureType>HAAR</featureType>
  <height>20</height>
  <width>20</width>
  <stageParams>
    <boostType>GAB</boostType>
    <minHitRate>9.9500000476837158e-01</minHitRate>
    <maxFalseAlarm>5.0000000000000000e-01</maxFalseAlarm>
    <weightTrimRate>9.4999999999999996e-01</weightTrimRate>
    <maxDepth>1</maxDepth>
    <maxWeakCount>100</maxWeakCount></stageParams>
  <featureParams>
    <maxCatCount>0</maxCatCount>
    <featSize>1</featSize>
    <mode>BASIC</mode></featureParams>
  <stageNum>5</stageNum>
  <stages>
    <!-- stage 0 -->
    <_>
      <maxWeakCount>2</maxWeakCount>
      <stageThreshold>-6.9914452731609344e-02</stageThreshold>
      <weakClassifiers>
        <_>
          <internalNodes>
            0 -1 5 4.5313302427530289e-02</internalNodes>
          <leafValues>
            -8.6324787139892578e-01 8.7596899271011353e-01</leafValues></_>
        <_>
          <internalNodes>
            0 -1 12 1.4223313890397549e-02</internalNodes>
          <leafValues>
            -7.7307277917861938e-01 7.9333341121673584e-01</leafValues></_></weakClassifiers></_>
    <!-- stage 1 -->
    <_>
      <maxWeakCount>2</maxWeakCount>
      <stageThreshold>-6.3616432249546051e-02</stageThreshold>
      <weakClassifiers>
        <_>
          <internalNodes>
            0 -1 2 -1.3711145147681236e-02</internalNodes>
          <leafValues>
            7.9591834545135498e-01 -8.4834122657775879e-01</leafValues></_>
        <_>
          <internalNodes>
            0 -1 1 2.1892404183745384e-02</internalNodes>
          <leafValues>
            -7.6018881797790527e-01 7.8472477197647095e-01</leafValues></_></weakClassifiers></_>
    <!-- stage 2 -->
    <_>
      <maxWeakCount>2</maxWeakCount>
      <stageThreshold>-1.2008754163980484e-01</stageThreshold>
      <weakClassifiers>
        <_>
          <internalNodes>
            0 -1 3 4.9731750041246414e-02</internalNodes>
          <leafValues>
            -8.4848487377166748e-01 7.5724637508392334e-01</leafValues></_>
        <_>
          <internalNodes>
            0 -1 9 2.1342407912015915e-02</internalNodes>
          <leafValues>
            -7.7566742897033691e-01 7.2839730978012085e-01</leafValues></_></weakClassifiers></_>
    <!-- stage 3 -->
    <_>
      <maxWeakCount>4</maxWeakCount>
      <stageThreshold>-2.5187274813652039e-01</stageThreshold>
      <weakClassifiers>
        <_>
          <internalNodes>
            0 -1 10 9.7935963422060013e-03</internalNodes>
          <leafValues>
            -8.2210242748260498e-01 7.1302038431167603e-01</leafValues></_>
        <_>
          <internalNodes>
            0 -1 7 2.3640792816877365e-02</internalNodes>
          <leafValues>
            -6.7518818378448486e-01 6.6137975454330444e-01</leafValues></_>
        <_>
          <internalNodes>
            0 -1 0 5.6855469942092896e-02</internalNodes>
          <leafValues>
            -5.7500684261322021e-01 7.9394155740737915e-01</leafValues></_>
        <_>
          <internalNodes>
            0 -1 13 1.1981315037701279e-04</internalNodes>
          <leafValues>
            -9.4437479972839355e-01 4.8385673761367798e-01</leafValues></_></weakClassifiers></_>
    <!-- stage 4 -->
    <_>
      <maxWeakCount>4</maxWeakCount>
      <stageThreshold>-3.3087882399559021e-01</stageThreshold>
      <weakClassifiers>
        <_>
          <internalNodes>
            0 -1 11 -2.6383455842733383e-02</internalNodes>
          <leafValues>
            7.4714827537536621e-01 -6.3839286565780640e-01</leafValues></_>
        <_>
          <internalNodes>
            0 -1 8 -7.8841596841812134e-03</internalNodes>
          <leafValues>
            5.9784388542175293e-01 -8.5248786211013794e-01</leafValues></_>
        <_>
          <internalNodes>
            0 -1 4 -1.1164580471813679e-02</internalNodes>
          <leafValues>
            6.8547713756561279e-01 -5.4200637340545654e-01</leafValues></_>
        <_>
          <internalNodes>
            0 -1 6 -2.2992167621850967e-02</internalNodes>
          <leafValues>
            4.7452473640441895e-01 -8.2763743400573730e-01</leafValues></_></weakClassifiers></_></stages>
  <features>
    <_>
      <rects>
        <_>
          0 7 6 7 -1.</_>
        <_>
          2 7 2 7 3.</_></rects>
      <tilted>0</tilted></_>
    <_>
      <rects>
        <_>
          0 8 6 4 -1.</_>
        <_>
          2 8 2 4 3.</_></rects>
      <tilted>0</tilted></_>
    <_>
      <rects>
        <_>
          3 7 8 2 -1.</_>
        <_>
          7 7 4 2 2.</_></rects>
      <tilted>0</tilted></_>
    <_>
      <rects>
        <_>
          4 0 4 12 -1.</_>
        <_>
          4 4 4 4 3.</_></rects>
      <tilted>0</tilted></_>
    <_>
      <rects>
        <_>
          4 18 13 2 -1.</_>
        <_>
          4 19 13 1 2.</_></rects>
      <tilted>0</tilted></_>
    <_>
      <rects>
        <_>
          6 0 5 9 -1.</_>
        <_>
          6 3 5 3 3.</_></rects>
      <tilted>0</tilted></_>
    <_>
      <rects>
        <_>
          7 5 12 8 -1.</_>
        <_>
          11 5 4 8 3.</_></rects>
      <tilted>0</tilted></_>
    <_>
      <rects>
        <_>
          8 0 6 6 -1.</_>
        <_>
          8 2 6 2 3.</_></rects>
      <tilted>0</tilted></_>
    <_>
      <rects>
        <_>
          8 4 1 6 -1.</_>
        <_>
          8 7 1 3 2.</_></rects>
      <tilted>0</tilted></_>
    <_>
      <rects>
        <_>
          8 14 5 6 -1.</_>
        <_>
          8 16 5 2 3.</_></rects>
      <tilted>0</tilted></_>
    <_>
      <rects>
        <_>
          9 9 8 6 -1.</_>
        <_>
          9 9 4 3 2.</_>
        <_>
          13 12 4 3 2.</_></rects>
      <tilted>0</tilted></_>
    <_>
      <rects>
        <_>
          11 12 8 6 -1.</_>
        <_>
          11 12 4 3 2.</_>
        <_>
          15 15 4 3 2.</_></rects>
      <tilted>0</tilted></_>
    <_>
      <rects>
        <_>
          11 13 4 6 -1.</_>
        <_>
          11 15 4 2 3.</_></rects>
      <tilted>0</tilted></_>
    <_>
      <rects>
        <_>
          14 13 1 3 -1.</_>
        <_>
          14 14 1 1 3.</_></rects>
      <tilted>0</tilted></_></features></cascade>
</opencv_storage>
