<?xml version="1.0"?>
<opencv_storage>
<stage5>
  <maxWeakCount>5</maxWeakCount>
  <stageThreshold>-8.6760753393173218e-01</stageThreshold>
  <weakClassifiers>
    <_>
      <internalNodes>
        0 -1 12602 2.7745263651013374e-03</internalNodes>
      <leafValues>
        -5.7547169923782349e-01 6.9144982099533081e-01</leafValues></_>
    <_>
      <internalNodes>
        0 -1 77919 -1.2523583136498928e-02</internalNodes>
      <leafValues>
        7.5252366065979004e-01 -4.4134131073951721e-01</leafValues></_>
    <_>
      <internalNodes>
        0 -1 37257 -1.1328849941492081e-02</internalNodes>
      <leafValues>
        4.4504326581954956e-01 -8.7276279926300049e-01</leafValues></_>
    <_>
      <internalNodes>
        0 -1 58445 1.2061835732311010e-03</internalNodes>
      <leafValues>
        -7.7197325229644775e-01 3.9759904146194458e-01</leafValues></_>
    <_>
      <internalNodes>
        0 -1 40129 7.6373279094696045e-02</internalNodes>
      <leafValues>
        -6.0763955116271973e-01 4.7613552212715149e-01</leafValues></_></weakClassifiers></stage5>
</opencv_storage>
